<?xml version="1.0"?>
<opencv_storage>
<stage9>
  <maxWeakCount>10</maxWeakCount>
  <stageThreshold>-1.1263022422790527e+00</stageThreshold>
  <weakClassifiers>
    <_>
      <internalNodes>
        0 -1 66683 1.8428716808557510e-02</internalNodes>
      <leafValues>
        -6.4267992973327637e-01 5.5054301023483276e-01</leafValues></_>
    <_>
      <internalNodes>
        0 -1 8139 -2.4857190510374494e-06</internalNodes>
      <leafValues>
        -8.1613868474960327e-01 3.8828995823860168e-01</leafValues></_>
    <_>
      <internalNodes>
        0 -1 3468110 2.6054114103317261e-01</internalNodes>
      <leafValues>
        -6.4781504869461060e-01 3.9862021803855896e-01</leafValues></_>
    <_>
      <internalNodes>
        0 -1 6848688 -5.8268296925234608e-06</internalNodes>
      <leafValues>
        -8.0165421962738037e-01 2.3960159718990326e-01</leafValues></_>
    <_>
      <internalNodes>
        0 -1 1567770 -3.0712108127772808e-06</internalNodes>
      <leafValues>
        -8.3429753780364990e-01 1.9312596321105957e-01</leafValues></_>
    <_>
      <internalNodes>
        0 -1 3943245 2.9685928893741220e-05</internalNodes>
      <leafValues>
        1.3801015913486481e-01 -8.7104403972625732e-01</leafValues></_>
    <_>
      <internalNodes>
        0 -1 4907674 -6.4399285474792123e-04</internalNodes>
      <leafValues>
        1.7418292164802551e-01 -8.0966323614120483e-01</leafValues></_>
    <_>
      <internalNodes>
        0 -1 4055596 -2.2149385767988861e-04</internalNodes>
      <leafValues>
        3.4519967436790466e-01 -5.3958749771118164e-01</leafValues></_>
    <_>
      <internalNodes>
        0 -1 4926300 1.3617265040011262e-06</internalNodes>
      <leafValues>
        -4.2231073975563049e-01 3.8342863321304321e-01</leafValues></_>
    <_>
      <internalNodes>
        0 -1 1422728 -4.8634069571562577e-06</internalNodes>
      <leafValues>
        -6.8859195709228516e-01 2.0166809856891632e-01</leafValues></_></weakClassifiers></stage9>
</opencv_storage>
