<?xml version="1.0"?>
<opencv_storage>
<stage17>
  <maxWeakCount>13</maxWeakCount>
  <stageThreshold>-1.1781047582626343e+00</stageThreshold>
  <weakClassifiers>
    <_>
      <internalNodes>
        0 -1 10271 4.0083955973386765e-02</internalNodes>
      <leafValues>
        -3.3944955468177795e-01 6.5750527381896973e-01</leafValues></_>
    <_>
      <internalNodes>
        0 -1 7759514 2.8318138447502861e-06</internalNodes>
      <leafValues>
        2.8443092107772827e-01 -7.3198813199996948e-01</leafValues></_>
    <_>
      <internalNodes>
        0 -1 760060 1.0883917659521103e-01</internalNodes>
      <leafValues>
        -1.9886620342731476e-01 6.9967836141586304e-01</leafValues></_>
    <_>
      <internalNodes>
        0 -1 6714795 -4.4343200897856150e-06</internalNodes>
      <leafValues>
        -7.8420221805572510e-01 1.8528087437152863e-01</leafValues></_>
    <_>
      <internalNodes>
        0 -1 5235815 -8.4376323502510786e-04</internalNodes>
      <leafValues>
        1.9725009799003601e-01 -7.0649594068527222e-01</leafValues></_>
    <_>
      <internalNodes>
        0 -1 3743397 -1.3337139785289764e-01</internalNodes>
      <leafValues>
        -8.7433236837387085e-01 9.9227242171764374e-02</leafValues></_>
    <_>
      <internalNodes>
        0 -1 4074927 -1.4593032346965629e-06</internalNodes>
      <leafValues>
        -7.6425963640213013e-01 1.5220819413661957e-01</leafValues></_>
    <_>
      <internalNodes>
        0 -1 5355446 2.2182513494044542e-03</internalNodes>
      <leafValues>
        1.1780626326799393e-01 -8.9752429723739624e-01</leafValues></_>
    <_>
      <internalNodes>
        0 -1 4451880 2.3108799010515213e-02</internalNodes>
      <leafValues>
        -1.6710469126701355e-01 9.4664341211318970e-01</leafValues></_>
    <_>
      <internalNodes>
        0 -1 4194781 -5.2512867114273831e-05</internalNodes>
      <leafValues>
        2.6932790875434875e-01 -5.3579151630401611e-01</leafValues></_>
    <_>
      <internalNodes>
        0 -1 3008164 7.3240404017269611e-03</internalNodes>
      <leafValues>
        -5.2708065509796143e-01 2.6010447740554810e-01</leafValues></_>
    <_>
      <internalNodes>
        0 -1 5349025 -1.5885912580415606e-04</internalNodes>
      <leafValues>
        2.0499743521213531e-01 -6.5428006649017334e-01</leafValues></_>
    <_>
      <internalNodes>
        0 -1 5395440 -1.4496390576823615e-06</internalNodes>
      <leafValues>
        -7.2874969244003296e-01 1.6812562942504883e-01</leafValues></_></weakClassifiers></stage17>
</opencv_storage>
