<?xml version="1.0"?>
<opencv_storage>
<stage5>
  <maxWeakCount>7</maxWeakCount>
  <stageThreshold>-1.2605104446411133e+00</stageThreshold>
  <weakClassifiers>
    <_>
      <internalNodes>
        0 -1 5906036 -6.7038729786872864e-02</internalNodes>
      <leafValues>
        6.8738901615142822e-01 -7.8902953863143921e-01</leafValues></_>
    <_>
      <internalNodes>
        0 -1 227138 1.0220414400100708e-01</internalNodes>
      <leafValues>
        -3.8624331355094910e-01 8.3146691322326660e-01</leafValues></_>
    <_>
      <internalNodes>
        0 -1 7581681 -3.1760653200763045e-06</internalNodes>
      <leafValues>
        -7.7222412824630737e-01 3.9147502183914185e-01</leafValues></_>
    <_>
      <internalNodes>
        0 -1 4807024 -4.6631921577500179e-05</internalNodes>
      <leafValues>
        2.7484858036041260e-01 -8.1357967853546143e-01</leafValues></_>
    <_>
      <internalNodes>
        0 -1 2188676 1.2890427373349667e-02</internalNodes>
      <leafValues>
        -4.5036768913269043e-01 5.5229407548904419e-01</leafValues></_>
    <_>
      <internalNodes>
        0 -1 5351736 2.3518349044024944e-03</internalNodes>
      <leafValues>
        -4.6937453746795654e-01 5.5119651556015015e-01</leafValues></_>
    <_>
      <internalNodes>
        0 -1 3118253 1.0394169657956809e-04</internalNodes>
      <leafValues>
        -7.8729701042175293e-01 3.1130906939506531e-01</leafValues></_></weakClassifiers></stage5>
</opencv_storage>
