<?xml version="1.0"?>
<opencv_storage>
<stage3>
  <maxWeakCount>7</maxWeakCount>
  <stageThreshold>-1.1467067003250122e+00</stageThreshold>
  <weakClassifiers>
    <_>
      <internalNodes>
        0 -1 79224 7.0936128497123718e-02</internalNodes>
      <leafValues>
        -5.6962025165557861e-01 7.8512394428253174e-01</leafValues></_>
    <_>
      <internalNodes>
        0 -1 331274 1.5619796514511108e-01</internalNodes>
      <leafValues>
        -6.0146933794021606e-01 6.0240083932876587e-01</leafValues></_>
    <_>
      <internalNodes>
        0 -1 480622 -3.2414877750852611e-06</internalNodes>
      <leafValues>
        -8.9050275087356567e-01 3.9074933528900146e-01</leafValues></_>
    <_>
      <internalNodes>
        0 -1 4188147 -1.6071967547759414e-03</internalNodes>
      <leafValues>
        3.4314143657684326e-01 -9.3899089097976685e-01</leafValues></_>
    <_>
      <internalNodes>
        0 -1 255543 6.5938390791416168e-02</internalNodes>
      <leafValues>
        -4.7789156436920166e-01 7.7472817897796631e-01</leafValues></_>
    <_>
      <internalNodes>
        0 -1 3844443 6.9540161639451981e-03</internalNodes>
      <leafValues>
        -5.1083493232727051e-01 6.5762227773666382e-01</leafValues></_>
    <_>
      <internalNodes>
        0 -1 3288276 3.6979010928916978e-06</internalNodes>
      <leafValues>
        4.6806836128234863e-01 -8.1185674667358398e-01</leafValues></_></weakClassifiers></stage3>
</opencv_storage>
