<?xml version="1.0"?>
<opencv_storage>
<stage14>
  <maxWeakCount>14</maxWeakCount>
  <stageThreshold>-1.3664880990982056e+00</stageThreshold>
  <weakClassifiers>
    <_>
      <internalNodes>
        0 -1 5569434 -3.8330752402544022e-02</internalNodes>
      <leafValues>
        5.5721390247344971e-01 -6.9035530090332031e-01</leafValues></_>
    <_>
      <internalNodes>
        0 -1 549871 -1.2591020094987471e-05</internalNodes>
      <leafValues>
        -7.7583175897598267e-01 2.4593149125576019e-01</leafValues></_>
    <_>
      <internalNodes>
        0 -1 5638229 4.9143104115501046e-04</internalNodes>
      <leafValues>
        -6.0147947072982788e-01 3.1038498878479004e-01</leafValues></_>
    <_>
      <internalNodes>
        0 -1 6787255 -4.9191717153007630e-06</internalNodes>
      <leafValues>
        -9.0305829048156738e-01 1.6120922565460205e-01</leafValues></_>
    <_>
      <internalNodes>
        0 -1 6253602 4.3450047087389976e-05</internalNodes>
      <leafValues>
        -5.9396201372146606e-01 2.1962253749370575e-01</leafValues></_>
    <_>
      <internalNodes>
        0 -1 2330514 3.5700586522580124e-06</internalNodes>
      <leafValues>
        2.3717640340328217e-01 -6.3720113039016724e-01</leafValues></_>
    <_>
      <internalNodes>
        0 -1 6700782 5.8959085436072201e-05</internalNodes>
      <leafValues>
        1.8565528094768524e-01 -7.4199748039245605e-01</leafValues></_>
    <_>
      <internalNodes>
        0 -1 2332850 -2.1230082958936691e-02</internalNodes>
      <leafValues>
        -5.9178620576858521e-01 2.4507009983062744e-01</leafValues></_>
    <_>
      <internalNodes>
        0 -1 4923360 1.5815159713383764e-05</internalNodes>
      <leafValues>
        -3.8001388311386108e-01 4.3069416284561157e-01</leafValues></_>
    <_>
      <internalNodes>
        0 -1 5312865 -3.6342060775496066e-04</internalNodes>
      <leafValues>
        4.5291987061500549e-01 -3.9049196243286133e-01</leafValues></_>
    <_>
      <internalNodes>
        0 -1 2812886 -1.1981886345893145e-03</internalNodes>
      <leafValues>
        -7.5473439693450928e-01 2.4271266162395477e-01</leafValues></_>
    <_>
      <internalNodes>
        0 -1 4094293 4.8247409722534940e-05</internalNodes>
      <leafValues>
        1.5706679224967957e-01 -6.8958163261413574e-01</leafValues></_>
    <_>
      <internalNodes>
        0 -1 2693430 2.8553006704896688e-03</internalNodes>
      <leafValues>
        -1.8258872628211975e-01 8.2122892141342163e-01</leafValues></_>
    <_>
      <internalNodes>
        0 -1 5011393 -1.0498605668544769e-02</internalNodes>
      <leafValues>
        -8.0606234073638916e-01 2.0208096504211426e-01</leafValues></_></weakClassifiers></stage14>
</opencv_storage>
