<?xml version="1.0"?>
<opencv_storage>
<stage17>
  <maxWeakCount>14</maxWeakCount>
  <stageThreshold>-1.2324113845825195e+00</stageThreshold>
  <weakClassifiers>
    <_>
      <internalNodes>
        0 -1 4676920 2.8264606371521950e-03</internalNodes>
      <leafValues>
        -3.9203354716300964e-01 5.2270704507827759e-01</leafValues></_>
    <_>
      <internalNodes>
        0 -1 6654500 -4.9159898480866104e-06</internalNodes>
      <leafValues>
        -4.9669796228408813e-01 3.4610050916671753e-01</leafValues></_>
    <_>
      <internalNodes>
        0 -1 2772977 9.7590096993371844e-04</internalNodes>
      <leafValues>
        -2.1866022050380707e-01 6.9853383302688599e-01</leafValues></_>
    <_>
      <internalNodes>
        0 -1 2579426 9.2901363968849182e-02</internalNodes>
      <leafValues>
        2.1643443405628204e-01 -7.6627665758132935e-01</leafValues></_>
    <_>
      <internalNodes>
        0 -1 6788763 -4.9641721489024349e-06</internalNodes>
      <leafValues>
        -6.2693452835083008e-01 2.2400631010532379e-01</leafValues></_>
    <_>
      <internalNodes>
        0 -1 5661944 2.0783170475624502e-04</internalNodes>
      <leafValues>
        -2.6376536488533020e-01 8.3635795116424561e-01</leafValues></_>
    <_>
      <internalNodes>
        0 -1 5763100 2.9969031456857920e-03</internalNodes>
      <leafValues>
        2.4732245504856110e-01 -8.6331868171691895e-01</leafValues></_>
    <_>
      <internalNodes>
        0 -1 5670069 2.0443418179638684e-04</internalNodes>
      <leafValues>
        -2.3840817809104919e-01 6.3203191757202148e-01</leafValues></_>
    <_>
      <internalNodes>
        0 -1 5859286 6.3239003065973520e-04</internalNodes>
      <leafValues>
        1.9996310770511627e-01 -7.6920109987258911e-01</leafValues></_>
    <_>
      <internalNodes>
        0 -1 5472338 -9.3182716227602214e-05</internalNodes>
      <leafValues>
        7.7551579475402832e-01 -2.0753099024295807e-01</leafValues></_>
    <_>
      <internalNodes>
        0 -1 5363685 -1.6650215547997504e-04</internalNodes>
      <leafValues>
        -6.7605066299438477e-01 2.4257324635982513e-01</leafValues></_>
    <_>
      <internalNodes>
        0 -1 5863853 1.6252661589533091e-04</internalNodes>
      <leafValues>
        -2.1741203963756561e-01 8.7090355157852173e-01</leafValues></_>
    <_>
      <internalNodes>
        0 -1 6919914 -4.9785539886215702e-06</internalNodes>
      <leafValues>
        -6.3858258724212646e-01 2.7263498306274414e-01</leafValues></_>
    <_>
      <internalNodes>
        0 -1 2321611 3.1933009624481201e-02</internalNodes>
      <leafValues>
        2.5010320544242859e-01 -6.9151818752288818e-01</leafValues></_></weakClassifiers></stage17>
</opencv_storage>
